\data\
ngram 1=77
ngram 2=151
ngram 3=176
ngram 4=185

\1-grams:
-2.4417424	<unk>	0
0	<s>	-0.11444686
-1.397505	</s>	0
-2.1594234	u0054_u0077_u0069_u006e_u006b_u006c_u0065	-0.08471372
-1.0981321	u002c	-0.58579564
-0.43043193	u0020	-0.1662795
-2.1594234	u0074_u0077_u0069_u006e_u006b_u006c_u0065	-0.08471372
-2.1594234	u006c_u0069_u0074_u0074_u006c_u0065	-0.08471372
-2.1594234	u0073_u0074_u0061_u0072	-0.08471372
-2.1594234	u0048_u006f_u0077	-0.08471372
-2.1594234	u0049	-0.08471372
-2.1594234	u0077_u006f_u006e_u0064_u0065_u0072	-0.08471372
-2.1594234	u0077_u0068_u0061_u0074	-0.08471372
-2.1594234	u0079_u006f_u0075	-0.08471372
-2.1594234	u0061_u0072_u0065	-0.08471372
-2.1594234	u0021	-0.08471372
-2.1594234	u0055_u0070	-0.08471372
-2.1594234	u0061_u0062_u006f_u0076_u0065	-0.08471372
-2.1594234	u0074_u0068_u0065	-0.08471372
-2.1594234	u0077_u006f_u0072_u006c_u0064	-0.08471372
-2.1594234	u0073_u006f	-0.08471372
-2.1594234	u0068_u0069_u0067_u0068	-0.08471372
-2.1594234	u004c_u0069_u006b_u0065	-0.08471372
-2.1594234	u0061	-0.08471372
-2.1594234	u0064_u0069_u0061_u006d_u006f_u006e_u0064	-0.08471372
-2.1594234	u0069_u006e	-0.08471372
-2.1594234	u0073_u006b_u0079	-0.08471372
-1.8680601	u002e	-0.19769306
-2.1594234	u0057_u0068_u0065_u006e	-0.08471372
-2.1594234	u0062_u006c_u0061_u007a_u0069_u006e_u0067	-0.08471372
-2.1594234	u0073_u0075_u006e	-0.08471372
-2.1594234	u0069_u0073	-0.08471372
-2.1594234	u0067_u006f_u006e_u0065	-0.08471372
-2.1594234	u0068_u0065	-0.08471372
-2.1594234	u006e_u006f_u0074_u0068_u0069_u006e_u0067	-0.08471372
-2.1594234	u0073_u0068_u0069_u006e_u0065_u0073	-0.08471372
-2.1594234	u0075_u0070_u006f_u006e	-0.08471372
-2.1594234	u0054_u0068_u0065_u006e	-0.08471372
-2.1594234	u0073_u0068_u006f_u0077	-0.08471372
-2.1594234	u0079_u006f_u0075_u0072	-0.08471372
-2.1594234	u006c_u0069_u0067_u0068_u0074	-0.08471372
-2.1594234	u0061_u006c_u006c	-0.08471372
-2.1594234	u006e_u0069_u0067_u0068_u0074	-0.08471372
-2.1594234	u0074_u0072_u0061_u0076_u0065_u006c_u0065_u0072	-0.08471372
-2.1594234	u0064_u0061_u0072_u006b	-0.08471372
-2.1594234	u0054_u0068_u0061_u006e_u006b_u0073	-0.08471372
-2.1594234	u0066_u006f_u0072	-0.08471372
-2.1594234	u0074_u0069_u006e_u0079	-0.08471372
-2.1594234	u0073_u0070_u0061_u0072_u006b	-0.08471372
-2.1594234	u0063_u006f_u0075_u006c_u0064	-0.08471372
-2.1594234	u0073_u0065_u0065	-0.08471372
-2.1594234	u0077_u0068_u0065_u0072_u0065	-0.08471372
-2.1594234	u0074_u006f	-0.08471372
-2.1594234	u0067_u006f	-0.08471372
-2.1594234	u0049_u0066	-0.08471372
-2.1594234	u0064_u0069_u0064	-0.08471372
-2.1594234	u006e_u006f_u0074	-0.08471372
-2.1594234	u003f	-0.08471372
-2.1594234	u0049_u006e	-0.08471372
-2.1594234	u0062_u006c_u0075_u0065	-0.08471372
-2.1594234	u006b_u0065_u0065_u0070	-0.08471372
-2.1594234	u004f_u0066_u0074_u0065_u006e	-0.08471372
-2.1594234	u0074_u0068_u0072_u006f_u0075_u0067_u0068	-0.08471372
-2.1594234	u006d_u0079	-0.08471372
-2.1594234	u0063_u0075_u0072_u0074_u0061_u0069_u006e_u0073	-0.08471372
-2.1594234	u0070_u0065_u0065_u0070	-0.08471372
-2.1594234	u0046_u006f_u0072	-0.08471372
-2.1594234	u006e_u0065_u0076_u0065_u0072	-0.08471372
-2.1594234	u0073_u0068_u0075_u0074	-0.08471372
-2.1594234	u0065_u0079_u0065	-0.08471372
-2.1594234	u0054_u0069_u006c_u006c	-0.08471372
-2.1594234	u0041_u0073	-0.08471372
-2.1594234	u0062_u0072_u0069_u0067_u0068_u0074	-0.08471372
-2.1594234	u0061_u006e_u0064	-0.08471372
-2.1594234	u004c_u0069_u0067_u0068_u0074_u0073	-0.08471372
-2.1594234	u0054_u0068_u006f_u0075_u0067_u0068	-0.08471372
-2.1594234	u006b_u006e_u006f_u0077	-0.08471372

\2-grams:
-0.14864087	u002c </s>	0
-0.6774509	u0021 </s>	0
-0.4077341	u002e </s>	0
-1.0361362	u0064_u0061_u0072_u006b </s>	0
-0.9152381	u0073_u0070_u0061_u0072_u006b </s>	0
-0.6774509	u003f </s>	0
-0.6774509	u0070_u0065_u0065_u0070 </s>	0
-1.2205839	<s> u0054_u0077_u0069_u006e_u006b_u006c_u0065	-0.39040756
-0.61465657	u0054_u0077_u0069_u006e_u006b_u006c_u0065 u002c	-0.050852697
-0.8117878	u0074_u0077_u0069_u006e_u006b_u006c_u0065 u002c	-0.050852697
-0.8117878	u0073_u0074_u0061_u0072 u002c	-0.050852697
-0.8117878	u0061_u0072_u0065 u002c	-0.050852697
-0.61465657	u0068_u0069_u0067_u0068 u002c	-0.050852697
-0.61465657	u0067_u006f_u006e_u0065 u002c	-0.050852697
-0.61465657	u0075_u0070_u006f_u006e u002c	-0.050852697
-0.61465657	u006c_u0069_u0067_u0068_u0074 u002c	-0.050852697
-0.90410036	u0064_u0061_u0072_u006b u002c	-0.050852697
-0.8117878	u0073_u0070_u0061_u0072_u006b u002c	-0.050852697
-0.61465657	u0067_u006f u002c	-0.050852697
-0.61465657	u006b_u0065_u0065_u0070 u002c	-0.050852697
-0.61465657	u0065_u0079_u0065 u002c	-0.050852697
-0.86321735	u002c u0020	-0.050852697
-0.4045068	u0074_u0077_u0069_u006e_u006b_u006c_u0065 u0020	-0.050852697
-0.31640834	u006c_u0069_u0074_u0074_u006c_u0065 u0020	-0.050852697
-0.31640834	u0048_u006f_u0077 u0020	-0.050852697
-0.31640834	u0049 u0020	-0.050852697
-0.31640834	u0077_u006f_u006e_u0064_u0065_u0072 u0020	-0.050852697
-0.31640834	u0077_u0068_u0061_u0074 u0020	-0.050852697
-0.31640834	u0079_u006f_u0075 u0020	-0.050852697
-0.31640834	u0055_u0070 u0020	-0.050852697
-0.31640834	u0061_u0062_u006f_u0076_u0065 u0020	-0.050852697
-0.31640834	u0074_u0068_u0065 u0020	-0.050852668
-0.31640834	u0077_u006f_u0072_u006c_u0064 u0020	-0.050852697
-0.4045068	u0073_u006f u0020	-0.050852697
-0.31640834	u004c_u0069_u006b_u0065 u0020	-0.050852697
-0.31640834	u0061 u0020	-0.050852697
-0.31640834	u0064_u0069_u0061_u006d_u006f_u006e_u0064 u0020	-0.050852697
-0.31640834	u0069_u006e u0020	-0.050852697
-0.4045068	u0073_u006b_u0079 u0020	-0.050852697
-0.31640834	u0057_u0068_u0065_u006e u0020	-0.050852697
-0.31640834	u0062_u006c_u0061_u007a_u0069_u006e_u0067 u0020	-0.050852697
-0.31640834	u0073_u0075_u006e u0020	-0.050852697
-0.31640834	u0069_u0073 u0020	-0.050852697
-0.31640834	u0068_u0065 u0020	-0.050852697
-0.31640834	u006e_u006f_u0074_u0068_u0069_u006e_u0067 u0020	-0.050852697
-0.31640834	u0073_u0068_u0069_u006e_u0065_u0073 u0020	-0.050852697
-0.31640834	u0054_u0068_u0065_u006e u0020	-0.050852697
-0.31640834	u0073_u0068_u006f_u0077 u0020	-0.050852697
-0.31640834	u0079_u006f_u0075_u0072 u0020	-0.050852697
-0.31640834	u0061_u006c_u006c u0020	-0.050852697
-0.31640834	u0074_u0072_u0061_u0076_u0065_u006c_u0065_u0072 u0020	-0.050852697
-0.43834847	u0064_u0061_u0072_u006b u0020	-0.050852697
-0.31640834	u0054_u0068_u0061_u006e_u006b_u0073 u0020	-0.050852697
-0.31640834	u0066_u006f_u0072 u0020	-0.050852697
-0.31640834	u0074_u0069_u006e_u0079 u0020	-0.050852697
-0.31640834	u0063_u006f_u0075_u006c_u0064 u0020	-0.050852697
-0.31640834	u0073_u0065_u0065 u0020	-0.050852697
-0.31640834	u0077_u0068_u0065_u0072_u0065 u0020	-0.050852697
-0.31640834	u0074_u006f u0020	-0.050852697
-0.31640834	u0049_u0066 u0020	-0.050852697
-0.31640834	u0064_u0069_u0064 u0020	-0.050852697
-0.31640834	u006e_u006f_u0074 u0020	-0.050852697
-0.31640834	u0049_u006e u0020	-0.050852697
-0.31640834	u0062_u006c_u0075_u0065 u0020	-0.050852697
-0.31640834	u004f_u0066_u0074_u0065_u006e u0020	-0.050852697
-0.31640834	u0074_u0068_u0072_u006f_u0075_u0067_u0068 u0020	-0.050852697
-0.31640834	u006d_u0079 u0020	-0.050852697
-0.31640834	u0063_u0075_u0072_u0074_u0061_u0069_u006e_u0073 u0020	-0.050852697
-0.31640834	u0046_u006f_u0072 u0020	-0.050852697
-0.31640834	u006e_u0065_u0076_u0065_u0072 u0020	-0.050852697
-0.31640834	u0073_u0068_u0075_u0074 u0020	-0.050852697
-0.31640834	u0054_u0069_u006c_u006c u0020	-0.050852697
-0.31640834	u0041_u0073 u0020	-0.050852697
-0.31640834	u0062_u0072_u0069_u0067_u0068_u0074 u0020	-0.050852697
-0.31640834	u0061_u006e_u0064 u0020	-0.050852697
-0.31640834	u004c_u0069_u0067_u0068_u0074_u0073 u0020	-0.050852697
-0.31640834	u0054_u0068_u006f_u0075_u0067_u0068 u0020	-0.050852697
-0.31640834	u006b_u006e_u006f_u0077 u0020	-0.050852697
-1.948697	u0020 u0074_u0077_u0069_u006e_u006b_u006c_u0065	-0.050852697
-1.948697	u0020 u006c_u0069_u0074_u0074_u006c_u0065	-0.13480766
-2.160415	u0020 u0073_u0074_u0061_u0072	-0.050852697
-1.497992	<s> u0048_u006f_u0077	-0.13480766
-1.948697	u0020 u0049	-0.13480766
-2.160415	u0020 u0077_u006f_u006e_u0064_u0065_u0072	-0.050852697
-1.948697	u0020 u0077_u0068_u0061_u0074	-0.13480766
-1.2572381	u0020 u0079_u006f_u0075	-0.69143754
-2.160415	u0020 u0061_u0072_u0065	-0.050852697
-1.0254542	u0061_u0072_u0065 u0021	-0.050852697
-1.8482187	<s> u0055_u0070	-0.050852697
-2.160415	u0020 u0061_u0062_u006f_u0076_u0065	-0.050852697
-1.0969315	u0020 u0074_u0068_u0065	-0.8163763
-2.160415	u0020 u0077_u006f_u0072_u006c_u0064	-0.050852697
-1.948697	u0020 u0073_u006f	-0.050852697
-2.160415	u0020 u0068_u0069_u0067_u0068	-0.050852697
-1.8482187	<s> u004c_u0069_u006b_u0065	-0.050852697
-2.160415	u0020 u0061	-0.050852697
-2.160415	u0020 u0064_u0069_u0061_u006d_u006f_u006e_u0064	-0.050852697
-1.7383175	u0020 u0069_u006e	-0.39040756
-1.948697	u0020 u0073_u006b_u0079	-0.050852697
-1.0010595	u0073_u0074_u0061_u0072 u002e	-0.050852697
-1.0010595	u0073_u006b_u0079 u002e	-0.050852697
-0.7250023	u006e_u0069_u0067_u0068_u0074 u002e	-0.050852697
-1.497992	<s> u0057_u0068_u0065_u006e	-0.13480766
-2.160415	u0020 u0062_u006c_u0061_u007a_u0069_u006e_u0067	-0.050852697
-1.948697	u0020 u0073_u0075_u006e	-0.13480766
-2.160415	u0020 u0069_u0073	-0.050852697
-2.160415	u0020 u0067_u006f_u006e_u0065	-0.050852697
-1.948697	u0020 u0068_u0065	-0.13480766
-2.160415	u0020 u006e_u006f_u0074_u0068_u0069_u006e_u0067	-0.050852697
-2.160415	u0020 u0073_u0068_u0069_u006e_u0065_u0073	-0.050852697
-2.160415	u0020 u0075_u0070_u006f_u006e	-0.050852697
-1.497992	<s> u0054_u0068_u0065_u006e	-0.13480766
-2.160415	u0020 u0073_u0068_u006f_u0077	-0.050852697
-1.5140896	u0020 u0079_u006f_u0075_u0072	-0.5153463
-2.160415	u0020 u006c_u0069_u0067_u0068_u0074	-0.050852697
-2.160415	u0020 u0061_u006c_u006c	-0.050852697
-2.160415	u0020 u006e_u0069_u0067_u0068_u0074	-0.050852697
-2.160415	u0020 u0074_u0072_u0061_u0076_u0065_u006c_u0065_u0072	-0.050852697
-2.160415	u0020 u0064_u0061_u0072_u006b	-0.050852697
-1.8482187	<s> u0054_u0068_u0061_u006e_u006b_u0073	-0.050852697
-2.160415	u0020 u0066_u006f_u0072	-0.050852697
-1.948697	u0020 u0074_u0069_u006e_u0079	-0.13480766
-2.160415	u0020 u0073_u0070_u0061_u0072_u006b	-0.050852697
-2.160415	u0020 u0063_u006f_u0075_u006c_u0064	-0.050852697
-2.160415	u0020 u0073_u0065_u0065	-0.050852697
-2.160415	u0020 u0077_u0068_u0065_u0072_u0065	-0.050852697
-2.160415	u0020 u0074_u006f	-0.050852697
-2.160415	u0020 u0067_u006f	-0.050852697
-1.8482187	<s> u0049_u0066	-0.050852697
-2.160415	u0020 u0064_u0069_u0064	-0.050852697
-1.948697	u0020 u006e_u006f_u0074	-0.13480766
-1.0254542	u0073_u006f u003f	-0.050852697
-1.8482187	<s> u0049_u006e	-0.050852697
-2.160415	u0020 u0062_u006c_u0075_u0065	-0.050852697
-2.160415	u0020 u006b_u0065_u0065_u0070	-0.050852697
-1.8482187	<s> u004f_u0066_u0074_u0065_u006e	-0.050852697
-2.160415	u0020 u0074_u0068_u0072_u006f_u0075_u0067_u0068	-0.050852697
-2.160415	u0020 u006d_u0079	-0.050852697
-2.160415	u0020 u0063_u0075_u0072_u0074_u0061_u0069_u006e_u0073	-0.050852697
-2.160415	u0020 u0070_u0065_u0065_u0070	-0.050852697
-1.8482187	<s> u0046_u006f_u0072	-0.050852697
-2.160415	u0020 u006e_u0065_u0076_u0065_u0072	-0.050852697
-2.160415	u0020 u0073_u0068_u0075_u0074	-0.050852697
-2.160415	u0020 u0065_u0079_u0065	-0.050852697
-1.8482187	<s> u0054_u0069_u006c_u006c	-0.050852697
-1.8482187	<s> u0041_u0073	-0.050852697
-2.160415	u0020 u0062_u0072_u0069_u0067_u0068_u0074	-0.050852697
-2.160415	u0020 u0061_u006e_u0064	-0.050852697
-1.8482187	<s> u004c_u0069_u0067_u0068_u0074_u0073	-0.050852697
-1.8482187	<s> u0054_u0068_u006f_u0075_u0067_u0068	-0.050852697
-2.160415	u0020 u006b_u006e_u006f_u0077	-0.050852697

\3-grams:
-0.12948444	u0073_u0074_u0061_u0072 u002c </s>	0
-0.12948444	u0061_u0072_u0065 u002c </s>	0
-0.12948444	u0068_u0069_u0067_u0068 u002c </s>	0
-0.12948444	u0067_u006f_u006e_u0065 u002c </s>	0
-0.12948444	u0075_u0070_u006f_u006e u002c </s>	0
-0.12948444	u006c_u0069_u0067_u0068_u0074 u002c </s>	0
-0.12948444	u0064_u0061_u0072_u006b u002c </s>	0
-0.12948444	u0073_u0070_u0061_u0072_u006b u002c </s>	0
-0.12948444	u0067_u006f u002c </s>	0
-0.12948444	u006b_u0065_u0065_u0070 u002c </s>	0
-0.12948444	u0065_u0079_u0065 u002c </s>	0
-0.5266083	u0061_u0072_u0065 u0021 </s>	0
-0.33878928	u0073_u0074_u0061_u0072 u002e </s>	0
-0.33878928	u0073_u006b_u0079 u002e </s>	0
-0.33878928	u006e_u0069_u0067_u0068_u0074 u002e </s>	0
-0.9256189	u0020 u0064_u0061_u0072_u006b </s>	0
-0.78682923	u0020 u0073_u0070_u0061_u0072_u006b </s>	0
-0.5266083	u0073_u006f u003f </s>	0
-0.5266083	u0020 u0070_u0065_u0065_u0070 </s>	0
-0.15999274	<s> u0054_u0077_u0069_u006e_u006b_u006c_u0065 u002c	-0.2559895
-0.7156814	u0020 u0074_u0077_u0069_u006e_u006b_u006c_u0065 u002c	-0.2559895
-0.7156814	u0020 u0073_u0074_u0061_u0072 u002c	-0.07828672
-0.7156814	u0020 u0061_u0072_u0065 u002c	-0.07828672
-0.48609605	u0020 u0068_u0069_u0067_u0068 u002c	-0.07828672
-0.48609605	u0020 u0067_u006f_u006e_u0065 u002c	-0.07828672
-0.48609605	u0020 u0075_u0070_u006f_u006e u002c	-0.07828672
-0.48609605	u0020 u006c_u0069_u0067_u0068_u0074 u002c	-0.07828672
-0.8304376	u0020 u0064_u0061_u0072_u006b u002c	-0.07828672
-0.7156814	u0020 u0073_u0070_u0061_u0072_u006b u002c	-0.07828672
-0.48609605	u0020 u0067_u006f u002c	-0.07828672
-0.48609605	u0020 u006b_u0065_u0065_u0070 u002c	-0.07828672
-0.48609605	u0020 u0065_u0079_u0065 u002c	-0.07828672
-0.6338078	u0054_u0077_u0069_u006e_u006b_u006c_u0065 u002c u0020	-0.2559895
-0.6338078	u0074_u0077_u0069_u006e_u006b_u006c_u0065 u002c u0020	-0.1649035
-0.391784	u0020 u0074_u0077_u0069_u006e_u006b_u006c_u0065 u0020	-0.07828672
-0.20713773	u0020 u006c_u0069_u0074_u0074_u006c_u0065 u0020	-0.1649035
-0.20713773	<s> u0048_u006f_u0077 u0020	-0.07828672
-0.20713773	u0020 u0049 u0020	-0.07828672
-0.26778674	u0020 u0077_u006f_u006e_u0064_u0065_u0072 u0020	-0.07828672
-0.20713773	u0020 u0077_u0068_u0061_u0074 u0020	-0.21568973
-0.048317447	u0020 u0079_u006f_u0075 u0020	-0.11331619
-0.26778674	<s> u0055_u0070 u0020	-0.07828672
-0.26778674	u0020 u0061_u0062_u006f_u0076_u0065 u0020	-0.07828672
-0.035724852	u0020 u0074_u0068_u0065 u0020	-0.16991302
-0.26778674	u0020 u0077_u006f_u0072_u006c_u0064 u0020	-0.07828672
-0.391784	u0020 u0073_u006f u0020	-0.07828672
-0.26778674	<s> u004c_u0069_u006b_u0065 u0020	-0.07828672
-0.26778674	u0020 u0061 u0020	-0.07828672
-0.26778674	u0020 u0064_u0069_u0061_u006d_u006f_u006e_u0064 u0020	-0.07828672
-0.10269125	u0020 u0069_u006e u0020	-0.3809282
-0.391784	u0020 u0073_u006b_u0079 u0020	-0.07828672
-0.20713773	<s> u0057_u0068_u0065_u006e u0020	-0.07828672
-0.26778674	u0020 u0062_u006c_u0061_u007a_u0069_u006e_u0067 u0020	-0.07828672
-0.20713773	u0020 u0073_u0075_u006e u0020	-0.21568973
-0.26778674	u0020 u0069_u0073 u0020	-0.07828672
-0.20713773	u0020 u0068_u0065 u0020	-0.07828672
-0.26778674	u0020 u006e_u006f_u0074_u0068_u0069_u006e_u0067 u0020	-0.07828672
-0.26778674	u0020 u0073_u0068_u0069_u006e_u0065_u0073 u0020	-0.07828672
-0.20713773	<s> u0054_u0068_u0065_u006e u0020	-0.07828672
-0.26778674	u0020 u0073_u0068_u006f_u0077 u0020	-0.07828672
-0.07465397	u0020 u0079_u006f_u0075_u0072 u0020	-0.07828672
-0.26778674	u0020 u0061_u006c_u006c u0020	-0.07828672
-0.26778674	u0020 u0074_u0072_u0061_u0076_u0065_u006c_u0065_u0072 u0020	-0.21568973
-0.4424665	u0020 u0064_u0061_u0072_u006b u0020	-0.07828672
-0.26778674	<s> u0054_u0068_u0061_u006e_u006b_u0073 u0020	-0.07828672
-0.26778674	u0020 u0066_u006f_u0072 u0020	-0.07828672
-0.20713773	u0020 u0074_u0069_u006e_u0079 u0020	-0.21568973
-0.26778674	u0020 u0063_u006f_u0075_u006c_u0064 u0020	-0.07828672
-0.26778674	u0020 u0073_u0065_u0065 u0020	-0.07828672
-0.26778674	u0020 u0077_u0068_u0065_u0072_u0065 u0020	-0.07828672
-0.26778674	u0020 u0074_u006f u0020	-0.07828672
-0.26778674	<s> u0049_u0066 u0020	-0.07828672
-0.26778674	u0020 u0064_u0069_u0064 u0020	-0.07828672
-0.20713773	u0020 u006e_u006f_u0074 u0020	-0.07828672
-0.26778674	<s> u0049_u006e u0020	-0.07828672
-0.26778674	u0020 u0062_u006c_u0075_u0065 u0020	-0.07828672
-0.26778674	<s> u004f_u0066_u0074_u0065_u006e u0020	-0.07828672
-0.26778674	u0020 u0074_u0068_u0072_u006f_u0075_u0067_u0068 u0020	-0.07828672
-0.26778674	u0020 u006d_u0079 u0020	-0.07828672
-0.26778674	u0020 u0063_u0075_u0072_u0074_u0061_u0069_u006e_u0073 u0020	-0.07828672
-0.26778674	<s> u0046_u006f_u0072 u0020	-0.07828672
-0.26778674	u0020 u006e_u0065_u0076_u0065_u0072 u0020	-0.07828672
-0.26778674	u0020 u0073_u0068_u0075_u0074 u0020	-0.07828672
-0.26778674	<s> u0054_u0069_u006c_u006c u0020	-0.07828672
-0.26778674	<s> u0041_u0073 u0020	-0.07828672
-0.26778674	u0020 u0062_u0072_u0069_u0067_u0068_u0074 u0020	-0.07828672
-0.26778674	u0020 u0061_u006e_u0064 u0020	-0.07828672
-0.26778674	<s> u004c_u0069_u0067_u0068_u0074_u0073 u0020	-0.07828672
-0.26778674	<s> u0054_u0068_u006f_u0075_u0067_u0068 u0020	-0.07828672
-0.26778674	u0020 u006b_u006e_u006f_u0077 u0020	-0.07828672
-1.3293573	u002c u0020 u0074_u0077_u0069_u006e_u006b_u006c_u0065	-0.2559895
-1.1853596	u006e_u006f_u0074 u0020 u0074_u0077_u0069_u006e_u006b_u006c_u0065	-0.07828672
-1.3293573	u002c u0020 u006c_u0069_u0074_u0074_u006c_u0065	-0.21568973
-1.4244118	u0079_u006f_u0075_u0072 u0020 u006c_u0069_u0074_u0074_u006c_u0065	-0.07828672
-1.2118558	u006c_u0069_u0074_u0074_u006c_u0065 u0020 u0073_u0074_u0061_u0072	-0.07828672
-1.1853596	u0048_u006f_u0077 u0020 u0049	-0.07828672
-0.91898555	u0054_u0068_u006f_u0075_u0067_u0068 u0020 u0049	-0.07828672
-1.2118558	u0049 u0020 u0077_u006f_u006e_u0064_u0065_u0072	-0.07828672
-0.91898555	u0077_u006f_u006e_u0064_u0065_u0072 u0020 u0077_u0068_u0061_u0074	-0.07828672
-1.1853596	u006e_u006f_u0074 u0020 u0077_u0068_u0061_u0074	-0.07828672
-0.79671985	u0077_u0068_u0061_u0074 u0020 u0079_u006f_u0075	-0.21568973
-0.79671985	u0073_u006b_u0079 u0020 u0079_u006f_u0075	-0.07828672
-0.9811236	u0054_u0068_u0065_u006e u0020 u0079_u006f_u0075	-0.07828672
-0.79671985	u0054_u0068_u0061_u006e_u006b_u0073 u0020 u0079_u006f_u0075	-0.07828672
-0.79671985	u0049_u0066 u0020 u0079_u006f_u0075	-0.07828672
-0.79671985	u0046_u006f_u0072 u0020 u0079_u006f_u0075	-0.07828672
-1.6096977	u0079_u006f_u0075 u0020 u0061_u0072_u0065	-0.07828672
-0.8565626	u0020 u0061_u0072_u0065 u0021	-0.07828672
-0.93313307	u0055_u0070 u0020 u0061_u0062_u006f_u0076_u0065	-0.07828672
-0.74075514	u0061_u0062_u006f_u0076_u0065 u0020 u0074_u0068_u0065	-0.07828672
-0.74075514	u0069_u006e u0020 u0074_u0068_u0065	-0.3809282
-0.8982346	u0057_u0068_u0065_u006e u0020 u0074_u0068_u0065	-0.07828672
-0.8982346	u0054_u0068_u0065_u006e u0020 u0074_u0068_u0065	-0.07828672
-0.74075514	u0061_u006c_u006c u0020 u0074_u0068_u0065	-0.07828672
-0.74075514	u0049_u006e u0020 u0074_u0068_u0065	-0.07828672
-0.74075514	u0054_u0069_u006c_u006c u0020 u0074_u0068_u0065	-0.07828672
-0.74075514	u004c_u0069_u0067_u0068_u0074_u0073 u0020 u0074_u0068_u0065	-0.07828672
-1.6588961	u0074_u0068_u0065 u0020 u0077_u006f_u0072_u006c_u0064	-0.07828672
-0.91898555	u0074_u0077_u0069_u006e_u006b_u006c_u0065 u0020 u0073_u006f	-0.07828672
-0.91898555	u0077_u006f_u0072_u006c_u0064 u0020 u0073_u006f	-0.07828672
-0.93313307	u0073_u006f u0020 u0068_u0069_u0067_u0068	-0.07828672
-0.93313307	u004c_u0069_u006b_u0065 u0020 u0061	-0.07828672
-0.93313307	u0061 u0020 u0064_u0069_u0061_u006d_u006f_u006e_u0064	-0.07828672
-0.8970645	u0064_u0069_u0061_u006d_u006f_u006e_u0064 u0020 u0069_u006e	-0.07828672
-1.1457077	u0069_u0073 u0020 u0069_u006e	-0.07828672
-0.8970645	u0074_u0072_u0061_u0076_u0065_u006c_u0065_u0072 u0020 u0069_u006e	-0.21568973
-1.5884528	u0074_u0068_u0065 u0020 u0073_u006b_u0079	-0.21568973
-0.91898555	u0062_u006c_u0075_u0065 u0020 u0073_u006b_u0079	-0.07828672
-0.8416914	u0020 u0073_u0074_u0061_u0072 u002e	-0.07828672
-0.8416914	u0020 u0073_u006b_u0079 u002e	-0.21568973
-0.55588114	u0020 u006e_u0069_u0067_u0068_u0074 u002e	-0.07828672
-1.6588961	u0074_u0068_u0065 u0020 u0062_u006c_u0061_u007a_u0069_u006e_u0067	-0.07828672
-1.5884528	u0074_u0068_u0065 u0020 u0073_u0075_u006e	-0.07828672
-0.91898555	u0062_u006c_u0061_u007a_u0069_u006e_u0067 u0020 u0073_u0075_u006e	-0.07828672
-0.93313307	u0073_u0075_u006e u0020 u0069_u0073	-0.21568973
-1.2118558	u0069_u0073 u0020 u0067_u006f_u006e_u0065	-0.07828672
-1.1853596	u0057_u0068_u0065_u006e u0020 u0068_u0065	-0.07828672
-0.91898555	u0063_u006f_u0075_u006c_u0064 u0020 u0068_u0065	-0.07828672
-1.2118558	u0068_u0065 u0020 u006e_u006f_u0074_u0068_u0069_u006e_u0067	-0.07828672
-0.93313307	u006e_u006f_u0074_u0068_u0069_u006e_u0067 u0020 u0073_u0068_u0069_u006e_u0065_u0073	-0.07828672
-0.93313307	u0073_u0068_u0069_u006e_u0065_u0073 u0020 u0075_u0070_u006f_u006e	-0.07828672
-1.6096977	u0079_u006f_u0075 u0020 u0073_u0068_u006f_u0077	-0.07828672
-0.8609782	u0073_u0068_u006f_u0077 u0020 u0079_u006f_u0075_u0072	-0.07828672
-0.8609782	u0066_u006f_u0072 u0020 u0079_u006f_u0075_u0072	-0.07828672
-0.8609782	u0073_u0068_u0075_u0074 u0020 u0079_u006f_u0075_u0072	-0.07828672
-0.8609782	u0041_u0073 u0020 u0079_u006f_u0075_u0072	-0.07828672
-1.2118558	u006c_u0069_u0074_u0074_u006c_u0065 u0020 u006c_u0069_u0067_u0068_u0074	-0.07828672
-1.3667297	u002c u0020 u0061_u006c_u006c	-0.07828672
-1.6588961	u0074_u0068_u0065 u0020 u006e_u0069_u0067_u0068_u0074	-0.07828672
-1.6588961	u0074_u0068_u0065 u0020 u0074_u0072_u0061_u0076_u0065_u006c_u0065_u0072	-0.21568973
-1.6588961	u0074_u0068_u0065 u0020 u0064_u0061_u0072_u006b	-0.07828672
-1.6096977	u0079_u006f_u0075 u0020 u0066_u006f_u0072	-0.07828672
-1.4244118	u0079_u006f_u0075_u0072 u0020 u0074_u0069_u006e_u0079	-0.07828672
-0.91898555	u0061_u006e_u0064 u0020 u0074_u0069_u006e_u0079	-0.07828672
-0.93313307	u0074_u0069_u006e_u0079 u0020 u0073_u0070_u0061_u0072_u006b	-0.07828672
-1.2118558	u0048_u006f_u0077 u0020 u0063_u006f_u0075_u006c_u0064	-0.07828672
-1.2118558	u0068_u0065 u0020 u0073_u0065_u0065	-0.07828672
-0.93313307	u0073_u0065_u0065 u0020 u0077_u0068_u0065_u0072_u0065	-0.07828672
-0.93313307	u0077_u0068_u0065_u0072_u0065 u0020 u0074_u006f	-0.07828672
-0.93313307	u0074_u006f u0020 u0067_u006f	-0.07828672
-1.6096977	u0079_u006f_u0075 u0020 u0064_u0069_u0064	-0.07828672
-0.91898555	u0064_u0069_u0064 u0020 u006e_u006f_u0074	-0.07828672
-0.91898555	u006b_u006e_u006f_u0077 u0020 u006e_u006f_u0074	-0.07828672
-0.8565626	u0020 u0073_u006f u003f	-0.07828672
-0.93313307	u0064_u0061_u0072_u006b u0020 u0062_u006c_u0075_u0065	-0.07828672
-1.6096977	u0079_u006f_u0075 u0020 u006b_u0065_u0065_u0070	-0.07828672
-0.93313307	u004f_u0066_u0074_u0065_u006e u0020 u0074_u0068_u0072_u006f_u0075_u0067_u0068	-0.07828672
-0.93313307	u0074_u0068_u0072_u006f_u0075_u0067_u0068 u0020 u006d_u0079	-0.07828672
-0.93313307	u006d_u0079 u0020 u0063_u0075_u0072_u0074_u0061_u0069_u006e_u0073	-0.07828672
-0.93313307	u0063_u0075_u0072_u0074_u0061_u0069_u006e_u0073 u0020 u0070_u0065_u0065_u0070	-0.07828672
-1.6096977	u0079_u006f_u0075 u0020 u006e_u0065_u0076_u0065_u0072	-0.07828672
-0.93313307	u006e_u0065_u0076_u0065_u0072 u0020 u0073_u0068_u0075_u0074	-0.07828672
-1.4714396	u0079_u006f_u0075_u0072 u0020 u0065_u0079_u0065	-0.07828672
-1.4714396	u0079_u006f_u0075_u0072 u0020 u0062_u0072_u0069_u0067_u0068_u0074	-0.07828672
-0.93313307	u0062_u0072_u0069_u0067_u0068_u0074 u0020 u0061_u006e_u0064	-0.07828672
-1.2118558	u0049 u0020 u006b_u006e_u006f_u0077	-0.07828672

\4-grams:
-0.10528749	u0020 u0073_u0074_u0061_u0072 u002c </s>
-0.10528749	u0020 u0061_u0072_u0065 u002c </s>
-0.10528749	u0020 u0068_u0069_u0067_u0068 u002c </s>
-0.10528749	u0020 u0067_u006f_u006e_u0065 u002c </s>
-0.10528749	u0020 u0075_u0070_u006f_u006e u002c </s>
-0.10528749	u0020 u006c_u0069_u0067_u0068_u0074 u002c </s>
-0.10528749	u0020 u0064_u0061_u0072_u006b u002c </s>
-0.10528749	u0020 u0073_u0070_u0061_u0072_u006b u002c </s>
-0.10528749	u0020 u0067_u006f u002c </s>
-0.10528749	u0020 u006b_u0065_u0065_u0070 u002c </s>
-0.10528749	u0020 u0065_u0079_u0065 u002c </s>
-0.3837117	u0020 u0061_u0072_u0065 u0021 </s>
-0.26145232	u0020 u0073_u0074_u0061_u0072 u002e </s>
-0.17368096	u0020 u0073_u006b_u0079 u002e </s>
-0.26145232	u0020 u006e_u0069_u0067_u0068_u0074 u002e </s>
-0.81223243	u0074_u0068_u0065 u0020 u0064_u0061_u0072_u006b </s>
-0.65976197	u0074_u0069_u006e_u0079 u0020 u0073_u0070_u0061_u0072_u006b </s>
-0.3837117	u0020 u0073_u006f u003f </s>
-0.3837117	u0063_u0075_u0072_u0074_u0061_u0069_u006e_u0073 u0020 u0070_u0065_u0065_u0070 </s>
-0.2579812	u002c u0020 u0074_u0077_u0069_u006e_u006b_u006c_u0065 u002c
-0.61407185	u006c_u0069_u0074_u0074_u006c_u0065 u0020 u0073_u0074_u0061_u0072 u002c
-0.61407185	u0079_u006f_u0075 u0020 u0061_u0072_u0065 u002c
-0.3589169	u0073_u006f u0020 u0068_u0069_u0067_u0068 u002c
-0.3589169	u0069_u0073 u0020 u0067_u006f_u006e_u0065 u002c
-0.3589169	u0073_u0068_u0069_u006e_u0065_u0073 u0020 u0075_u0070_u006f_u006e u002c
-0.3589169	u006c_u0069_u0074_u0074_u006c_u0065 u0020 u006c_u0069_u0067_u0068_u0074 u002c
-0.7486743	u0074_u0068_u0065 u0020 u0064_u0061_u0072_u006b u002c
-0.61407185	u0074_u0069_u006e_u0079 u0020 u0073_u0070_u0061_u0072_u006b u002c
-0.3589169	u0074_u006f u0020 u0067_u006f u002c
-0.3589169	u0079_u006f_u0075 u0020 u006b_u0065_u0065_u0070 u002c
-0.3589169	u0079_u006f_u0075_u0072 u0020 u0065_u0079_u0065 u002c
-0.24090208	<s> u0054_u0077_u0069_u006e_u006b_u006c_u0065 u002c u0020
-0.24090208	u0020 u0074_u0077_u0069_u006e_u006b_u006c_u0065 u002c u0020
-0.29779577	u006e_u006f_u0074 u0020 u0074_u0077_u0069_u006e_u006b_u006c_u0065 u0020
-0.11398747	u002c u0020 u006c_u0069_u0074_u0074_u006c_u0065 u0020
-0.16542561	u0079_u006f_u0075_u0072 u0020 u006c_u0069_u0074_u0074_u006c_u0065 u0020
-0.16542561	u0048_u006f_u0077 u0020 u0049 u0020
-0.16542561	u0054_u0068_u006f_u0075_u0067_u0068 u0020 u0049 u0020
-0.21063866	u0049 u0020 u0077_u006f_u006e_u0064_u0065_u0072 u0020
-0.16542561	u0077_u006f_u006e_u0064_u0065_u0072 u0020 u0077_u0068_u0061_u0074 u0020
-0.16542561	u006e_u006f_u0074 u0020 u0077_u0068_u0061_u0074 u0020
-0.028759392	u0077_u0068_u0061_u0074 u0020 u0079_u006f_u0075 u0020
-0.039968066	u0073_u006b_u0079 u0020 u0079_u006f_u0075 u0020
-0.039968066	u0054_u0068_u0065_u006e u0020 u0079_u006f_u0075 u0020
-0.039968066	u0054_u0068_u0061_u006e_u006b_u0073 u0020 u0079_u006f_u0075 u0020
-0.039968066	u0049_u0066 u0020 u0079_u006f_u0075 u0020
-0.039968066	u0046_u006f_u0072 u0020 u0079_u006f_u0075 u0020
-0.21063866	u0055_u0070 u0020 u0061_u0062_u006f_u0076_u0065 u0020
-0.029625958	u0061_u0062_u006f_u0076_u0065 u0020 u0074_u0068_u0065 u0020
-0.0145055875	u0069_u006e u0020 u0074_u0068_u0065 u0020
-0.029625958	u0057_u0068_u0065_u006e u0020 u0074_u0068_u0065 u0020
-0.029625958	u0054_u0068_u0065_u006e u0020 u0074_u0068_u0065 u0020
-0.029625958	u0061_u006c_u006c u0020 u0074_u0068_u0065 u0020
-0.029625958	u0049_u006e u0020 u0074_u0068_u0065 u0020
-0.029625958	u0054_u0069_u006c_u006c u0020 u0074_u0068_u0065 u0020
-0.029625958	u004c_u0069_u0067_u0068_u0074_u0073 u0020 u0074_u0068_u0065 u0020
-0.21063866	u0074_u0068_u0065 u0020 u0077_u006f_u0072_u006c_u0064 u0020
-0.29779577	u0077_u006f_u0072_u006c_u0064 u0020 u0073_u006f u0020
-0.21063866	u004c_u0069_u006b_u0065 u0020 u0061 u0020
-0.21063866	u0061 u0020 u0064_u0069_u0061_u006d_u006f_u006e_u0064 u0020
-0.08399068	u0064_u0069_u0061_u006d_u006f_u006e_u0064 u0020 u0069_u006e u0020
-0.08399068	u0069_u0073 u0020 u0069_u006e u0020
-0.059559174	u0074_u0072_u0061_u0076_u0065_u006c_u0065_u0072 u0020 u0069_u006e u0020
-0.29779577	u0062_u006c_u0075_u0065 u0020 u0073_u006b_u0079 u0020
-0.21063866	u0074_u0068_u0065 u0020 u0062_u006c_u0061_u007a_u0069_u006e_u0067 u0020
-0.16542561	u0074_u0068_u0065 u0020 u0073_u0075_u006e u0020
-0.16542561	u0062_u006c_u0061_u007a_u0069_u006e_u0067 u0020 u0073_u0075_u006e u0020
-0.14271492	u0073_u0075_u006e u0020 u0069_u0073 u0020
-0.16542561	u0057_u0068_u0065_u006e u0020 u0068_u0065 u0020
-0.16542561	u0063_u006f_u0075_u006c_u0064 u0020 u0068_u0065 u0020
-0.21063866	u0068_u0065 u0020 u006e_u006f_u0074_u0068_u0069_u006e_u0067 u0020
-0.21063866	u006e_u006f_u0074_u0068_u0069_u006e_u0067 u0020 u0073_u0068_u0069_u006e_u0065_u0073 u0020
-0.21063866	u0079_u006f_u0075 u0020 u0073_u0068_u006f_u0077 u0020
-0.061421845	u0073_u0068_u006f_u0077 u0020 u0079_u006f_u0075_u0072 u0020
-0.061421845	u0066_u006f_u0072 u0020 u0079_u006f_u0075_u0072 u0020
-0.061421845	u0073_u0068_u0075_u0074 u0020 u0079_u006f_u0075_u0072 u0020
-0.061421845	u0041_u0073 u0020 u0079_u006f_u0075_u0072 u0020
-0.21063866	u002c u0020 u0061_u006c_u006c u0020
-0.14271492	u0074_u0068_u0065 u0020 u0074_u0072_u0061_u0076_u0065_u006c_u0065_u0072 u0020
-0.4479957	u0074_u0068_u0065 u0020 u0064_u0061_u0072_u006b u0020
-0.21063866	u0079_u006f_u0075 u0020 u0066_u006f_u0072 u0020
-0.16542561	u0079_u006f_u0075_u0072 u0020 u0074_u0069_u006e_u0079 u0020
-0.16542561	u0061_u006e_u0064 u0020 u0074_u0069_u006e_u0079 u0020
-0.21063866	u0048_u006f_u0077 u0020 u0063_u006f_u0075_u006c_u0064 u0020
-0.21063866	u0068_u0065 u0020 u0073_u0065_u0065 u0020
-0.21063866	u0073_u0065_u0065 u0020 u0077_u0068_u0065_u0072_u0065 u0020
-0.21063866	u0077_u0068_u0065_u0072_u0065 u0020 u0074_u006f u0020
-0.21063866	u0079_u006f_u0075 u0020 u0064_u0069_u0064 u0020
-0.16542561	u0064_u0069_u0064 u0020 u006e_u006f_u0074 u0020
-0.16542561	u006b_u006e_u006f_u0077 u0020 u006e_u006f_u0074 u0020
-0.21063866	u0064_u0061_u0072_u006b u0020 u0062_u006c_u0075_u0065 u0020
-0.21063866	u004f_u0066_u0074_u0065_u006e u0020 u0074_u0068_u0072_u006f_u0075_u0067_u0068 u0020
-0.21063866	u0074_u0068_u0072_u006f_u0075_u0067_u0068 u0020 u006d_u0079 u0020
-0.21063866	u006d_u0079 u0020 u0063_u0075_u0072_u0074_u0061_u0069_u006e_u0073 u0020
-0.21063866	u0079_u006f_u0075 u0020 u006e_u0065_u0076_u0065_u0072 u0020
-0.21063866	u006e_u0065_u0076_u0065_u0072 u0020 u0073_u0068_u0075_u0074 u0020
-0.21063866	u0079_u006f_u0075_u0072 u0020 u0062_u0072_u0069_u0067_u0068_u0074 u0020
-0.21063866	u0062_u0072_u0069_u0067_u0068_u0074 u0020 u0061_u006e_u0064 u0020
-0.21063866	u0049 u0020 u006b_u006e_u006f_u0077 u0020
-0.32666418	u0054_u0077_u0069_u006e_u006b_u006c_u0065 u002c u0020 u0074_u0077_u0069_u006e_u006b_u006c_u0065
-0.86337817	u0020 u006e_u006f_u0074 u0020 u0074_u0077_u0069_u006e_u006b_u006c_u0065
-0.53313684	u0074_u0077_u0069_u006e_u006b_u006c_u0065 u002c u0020 u006c_u0069_u0074_u0074_u006c_u0065
-1.1386806	u0020 u0079_u006f_u0075_u0072 u0020 u006c_u0069_u0074_u0074_u006c_u0065
-0.5186251	u0020 u006c_u0069_u0074_u0074_u006c_u0065 u0020 u0073_u0074_u0061_u0072
-0.86337817	<s> u0048_u006f_u0077 u0020 u0049
-0.57580703	<s> u0054_u0068_u006f_u0075_u0067_u0068 u0020 u0049
-0.87372714	u0020 u0049 u0020 u0077_u006f_u006e_u0064_u0065_u0072
-0.57580703	u0020 u0077_u006f_u006e_u0064_u0065_u0072 u0020 u0077_u0068_u0061_u0074
-0.86337817	u0020 u006e_u006f_u0074 u0020 u0077_u0068_u0061_u0074
-0.3110346	u0020 u0077_u0068_u0061_u0074 u0020 u0079_u006f_u0075
-0.5253488	u0020 u0073_u006b_u0079 u0020 u0079_u006f_u0075
-0.7703465	<s> u0054_u0068_u0065_u006e u0020 u0079_u006f_u0075
-0.5253488	<s> u0054_u0068_u0061_u006e_u006b_u0073 u0020 u0079_u006f_u0075
-0.5253488	<s> u0049_u0066 u0020 u0079_u006f_u0075
-0.5253488	<s> u0046_u006f_u0072 u0020 u0079_u006f_u0075
-0.8835248	u0020 u0079_u006f_u0075 u0020 u0061_u0072_u0065
-0.7018909	u0079_u006f_u0075 u0020 u0061_u0072_u0065 u0021
-0.5811136	<s> u0055_u0070 u0020 u0061_u0062_u006f_u0076_u0065
-0.49943575	u0020 u0061_u0062_u006f_u0076_u0065 u0020 u0074_u0068_u0065
-0.18072931	u0020 u0069_u006e u0020 u0074_u0068_u0065
-0.7257747	<s> u0057_u0068_u0065_u006e u0020 u0074_u0068_u0065
-0.7257747	<s> u0054_u0068_u0065_u006e u0020 u0074_u0068_u0065
-0.49943575	u0020 u0061_u006c_u006c u0020 u0074_u0068_u0065
-0.49943575	<s> u0049_u006e u0020 u0074_u0068_u0065
-0.49943575	<s> u0054_u0069_u006c_u006c u0020 u0074_u0068_u0065
-0.49943575	<s> u004c_u0069_u0067_u0068_u0074_u0073 u0020 u0074_u0068_u0065
-1.5253903	u0020 u0074_u0068_u0065 u0020 u0077_u006f_u0072_u006c_u0064
-0.57580703	u0020 u0074_u0077_u0069_u006e_u006b_u006c_u0065 u0020 u0073_u006f
-0.57580703	u0020 u0077_u006f_u0072_u006c_u0064 u0020 u0073_u006f
-0.5811136	u0020 u0073_u006f u0020 u0068_u0069_u0067_u0068
-0.5811136	<s> u004c_u0069_u006b_u0065 u0020 u0061
-0.5811136	u0020 u0061 u0020 u0064_u0069_u0061_u006d_u006f_u006e_u0064
-0.5673703	u0020 u0064_u0069_u0061_u006d_u006f_u006e_u0064 u0020 u0069_u006e
-0.84716594	u0020 u0069_u0073 u0020 u0069_u006e
-0.32923076	u0020 u0074_u0072_u0061_u0076_u0065_u006c_u0065_u0072 u0020 u0069_u006e
-1.0525041	u0020 u0074_u0068_u0065 u0020 u0073_u006b_u0079
-0.57580703	u0020 u0062_u006c_u0075_u0065 u0020 u0073_u006b_u0079
-0.6931318	u006c_u0069_u0074_u0074_u006c_u0065 u0020 u0073_u0074_u0061_u0072 u002e
-0.31961596	u0074_u0068_u0065 u0020 u0073_u006b_u0079 u002e
-0.4010647	u0074_u0068_u0065 u0020 u006e_u0069_u0067_u0068_u0074 u002e
-1.5253903	u0020 u0074_u0068_u0065 u0020 u0062_u006c_u0061_u007a_u0069_u006e_u0067
-1.4889348	u0020 u0074_u0068_u0065 u0020 u0073_u0075_u006e
-0.57580703	u0020 u0062_u006c_u0061_u007a_u0069_u006e_u0067 u0020 u0073_u0075_u006e
-0.3349661	u0020 u0073_u0075_u006e u0020 u0069_u0073
-0.87372714	u0020 u0069_u0073 u0020 u0067_u006f_u006e_u0065
-0.86337817	<s> u0057_u0068_u0065_u006e u0020 u0068_u0065
-0.57580703	u0020 u0063_u006f_u0075_u006c_u0064 u0020 u0068_u0065
-0.87372714	u0020 u0068_u0065 u0020 u006e_u006f_u0074_u0068_u0069_u006e_u0067
-0.5811136	u0020 u006e_u006f_u0074_u0068_u0069_u006e_u0067 u0020 u0073_u0068_u0069_u006e_u0065_u0073
-0.5811136	u0020 u0073_u0068_u0069_u006e_u0065_u0073 u0020 u0075_u0070_u006f_u006e
-1.371745	u0020 u0079_u006f_u0075 u0020 u0073_u0068_u006f_u0077
-0.55290663	u0020 u0073_u0068_u006f_u0077 u0020 u0079_u006f_u0075_u0072
-0.55290663	u0020 u0066_u006f_u0072 u0020 u0079_u006f_u0075_u0072
-0.55290663	u0020 u0073_u0068_u0075_u0074 u0020 u0079_u006f_u0075_u0072
-0.55290663	<s> u0041_u0073 u0020 u0079_u006f_u0075_u0072
-1.0133089	u0020 u006c_u0069_u0074_u0074_u006c_u0065 u0020 u006c_u0069_u0067_u0068_u0074
-1.0737392	u0074_u0077_u0069_u006e_u006b_u006c_u0065 u002c u0020 u0061_u006c_u006c
-1.5253903	u0020 u0074_u0068_u0065 u0020 u006e_u0069_u0067_u0068_u0074
-1.0654972	u0020 u0074_u0068_u0065 u0020 u0074_u0072_u0061_u0076_u0065_u006c_u0065_u0072
-0.86552405	u0020 u0074_u0068_u0065 u0020 u0064_u0061_u0072_u006b
-1.371745	u0020 u0079_u006f_u0075 u0020 u0066_u006f_u0072
-1.1386806	u0020 u0079_u006f_u0075_u0072 u0020 u0074_u0069_u006e_u0079
-0.57580703	u0020 u0061_u006e_u0064 u0020 u0074_u0069_u006e_u0079
-0.3349661	u0020 u0074_u0069_u006e_u0079 u0020 u0073_u0070_u0061_u0072_u006b
-0.87372714	<s> u0048_u006f_u0077 u0020 u0063_u006f_u0075_u006c_u0064
-0.87372714	u0020 u0068_u0065 u0020 u0073_u0065_u0065
-0.5811136	u0020 u0073_u0065_u0065 u0020 u0077_u0068_u0065_u0072_u0065
-0.5811136	u0020 u0077_u0068_u0065_u0072_u0065 u0020 u0074_u006f
-0.5811136	u0020 u0074_u006f u0020 u0067_u006f
-1.371745	u0020 u0079_u006f_u0075 u0020 u0064_u0069_u0064
-0.57580703	u0020 u0064_u0069_u0064 u0020 u006e_u006f_u0074
-0.57580703	u0020 u006b_u006e_u006f_u0077 u0020 u006e_u006f_u0074
-0.55108714	u0074_u0077_u0069_u006e_u006b_u006c_u0065 u0020 u0073_u006f u003f
-0.5811136	u0020 u0064_u0061_u0072_u006b u0020 u0062_u006c_u0075_u0065
-1.371745	u0020 u0079_u006f_u0075 u0020 u006b_u0065_u0065_u0070
-0.5811136	<s> u004f_u0066_u0074_u0065_u006e u0020 u0074_u0068_u0072_u006f_u0075_u0067_u0068
-0.5811136	u0020 u0074_u0068_u0072_u006f_u0075_u0067_u0068 u0020 u006d_u0079
-0.5811136	u0020 u006d_u0079 u0020 u0063_u0075_u0072_u0074_u0061_u0069_u006e_u0073
-0.5811136	u0020 u0063_u0075_u0072_u0074_u0061_u0069_u006e_u0073 u0020 u0070_u0065_u0065_u0070
-1.371745	u0020 u0079_u006f_u0075 u0020 u006e_u0065_u0076_u0065_u0072
-0.5811136	u0020 u006e_u0065_u0076_u0065_u0072 u0020 u0073_u0068_u0075_u0074
-1.1583984	u0020 u0079_u006f_u0075_u0072 u0020 u0065_u0079_u0065
-1.1583984	u0020 u0079_u006f_u0075_u0072 u0020 u0062_u0072_u0069_u0067_u0068_u0074
-0.5811136	u0020 u0062_u0072_u0069_u0067_u0068_u0074 u0020 u0061_u006e_u0064
-0.87372714	u0020 u0049 u0020 u006b_u006e_u006f_u0077

\end\
